digraph Tree {
node [shape=box, style="filled, rounded", color="black", fontname="helvetica"] ;
edge [fontname="helvetica"] ;
0 [label="petal length (cm) <= 2.6\ngini = 0.66\nsamples = 88\nvalue = [41, 57, 52]\nclass = versicolor", fillcolor="#f5fef9"] ;
1 [label="gini = 0.0\nsamples = 29\nvalue = [41, 0, 0]\nclass = setosa", fillcolor="#e58139"] ;
0 -> 1 [labeldistance=2.5, labelangle=45, headlabel="True"] ;
2 [label="petal width (cm) <= 1.65\ngini = 0.5\nsamples = 59\nvalue = [0, 57, 52]\nclass = versicolor", fillcolor="#eefdf4"] ;
0 -> 2 [labeldistance=2.5, labelangle=-45, headlabel="False"] ;
3 [label="sepal width (cm) <= 2.25\ngini = 0.04\nsamples = 28\nvalue = [0, 55, 1]\nclass = versicolor", fillcolor="#3de583"] ;
2 -> 3 ;
4 [label="petal length (cm) <= 4.5\ngini = 0.32\nsamples = 3\nvalue = [0, 4, 1]\nclass = versicolor", fillcolor="#6aeca0"] ;
3 -> 4 ;
5 [label="gini = 0.0\nsamples = 2\nvalue = [0, 4, 0]\nclass = versicolor", fillcolor="#39e581"] ;
4 -> 5 ;
6 [label="gini = 0.0\nsamples = 1\nvalue = [0, 0, 1]\nclass = virginica", fillcolor="#8139e5"] ;
4 -> 6 ;
7 [label="gini = 0.0\nsamples = 25\nvalue = [0, 51, 0]\nclass = versicolor", fillcolor="#39e581"] ;
3 -> 7 ;
8 [label="petal width (cm) <= 1.85\ngini = 0.07\nsamples = 31\nvalue = [0, 2, 51]\nclass = virginica", fillcolor="#8641e6"] ;
2 -> 8 ;
9 [label="sepal length (cm) <= 6.05\ngini = 0.26\nsamples = 9\nvalue = [0, 2, 11]\nclass = virginica", fillcolor="#985dea"] ;
8 -> 9 ;
10 [label="petal length (cm) <= 4.65\ngini = 0.5\nsamples = 2\nvalue = [0, 2, 2]\nclass = versicolor", fillcolor="#ffffff"] ;
9 -> 10 ;
11 [label="gini = 0.0\nsamples = 1\nvalue = [0, 0, 2]\nclass = virginica", fillcolor="#8139e5"] ;
10 -> 11 ;
12 [label="gini = 0.0\nsamples = 1\nvalue = [0, 2, 0]\nclass = versicolor", fillcolor="#39e581"] ;
10 -> 12 ;
13 [label="gini = 0.0\nsamples = 7\nvalue = [0, 0, 9]\nclass = virginica", fillcolor="#8139e5"] ;
9 -> 13 ;
14 [label="gini = 0.0\nsamples = 22\nvalue = [0, 0, 40]\nclass = virginica", fillcolor="#8139e5"] ;
8 -> 14 ;
}